net
{
	propagationenginegenerator1791944048146838126L = "edu.ucla.belief.approx.BeliefPropagationSettings@3ff7eadf";
	recoveryenginegenerator6944530267470113528l = "edu.ucla.util.SettingsImpl@76108196";
	node_size = (130.0 55.0);
}

node Housing
{
	states = ("TRUE" "FALSE" );
	position = (629 -231);
	diagnosistype = "AUXILIARY";
	DSLxSUBMODEL = "Root Submodel";
	ismapvariable = "false";
	ID = "variable7";
	label = "NYCHA housing";
	DSLxEXTRA_DEFINITIONxDIAGNOSIS_TYPE = "AUXILIARY";
	excludepolicy = "include whole CPT";
}
node Location
{
	states = ("INSIDE" "FRONT_OF" "OPPOSITE_OF" "REAR_OF" "OUTSIDE" "UNKNOWN" );
	position = (245 -233);
	diagnosistype = "AUXILIARY";
	DSLxSUBMODEL = "Root Submodel";
	ismapvariable = "false";
	ID = "variable5";
	label = "Location(+premise)";
	DSLxEXTRA_DEFINITIONxDIAGNOSIS_TYPE = "AUXILIARY";
	excludepolicy = "include whole CPT";
}
node Description
{
	states = ("PETIT_LARCENY" "HARRASSMENT_2" "ASSAULT_3_RELATED_OFFENSES" "CRIMINAL_MISCHIEF_RELATED_OF" "GRAND_LARCENY" "OFF_AGNST_PUB_ORD_SENSBLTY" "DANGEROUS_DRUGS" "OTHER" );
	position = (156 -331);
	diagnosistype = "AUXILIARY";
	DSLxSUBMODEL = "Root Submodel";
	ismapvariable = "false";
	ID = "variable8";
	label = "Description of offense";
	DSLxEXTRA_DEFINITIONxDIAGNOSIS_TYPE = "AUXILIARY";
	excludepolicy = "include whole CPT";
}
node Level
{
	states = ("MISDEMEANOR" "FELONY" "VIOLATION" );
	position = (639 -507);
	diagnosistype = "AUXILIARY";
	DSLxSUBMODEL = "Root Submodel";
	ismapvariable = "false";
	ID = "variable2";
	label = "Level of offense";
	DSLxEXTRA_DEFINITIONxDIAGNOSIS_TYPE = "AUXILIARY";
	excludepolicy = "include whole CPT";
}
node Outcome
{
	states = ("state0" "state1" );
	position = (168 -482);
	diagnosistype = "AUXILIARY";
	DSLxSUBMODEL = "Root Submodel";
	ismapvariable = "false";
	ID = "variable0";
	label = "Outcome of crime";
	DSLxEXTRA_DEFINITIONxDIAGNOSIS_TYPE = "AUXILIARY";
	excludepolicy = "include whole CPT";
}
node Precinct
{
	states = ("state0" "state1" );
	position = (738 -128);
	diagnosistype = "AUXILIARY";
	DSLxSUBMODEL = "Root Submodel";
	ismapvariable = "false";
	ID = "variable1";
	label = "Precinct";
	DSLxEXTRA_DEFINITIONxDIAGNOSIS_TYPE = "AUXILIARY";
	excludepolicy = "include whole CPT";
}
node Day
{
	states = ("Friday" "Wednesday" "Thursday" "Saturday" "Tuesday" "Monday" "Sunday" );
	position = (280 -20);
	diagnosistype = "AUXILIARY";
	DSLxSUBMODEL = "Root Submodel";
	ismapvariable = "false";
	ID = "variable1";
	label = "Day of the week";
	DSLxEXTRA_DEFINITIONxDIAGNOSIS_TYPE = "AUXILIARY";
	excludepolicy = "include whole CPT";
}
node Classification
{
	states = ("HARASSMENT_SUBD_3_4_5" "ASSAULT_3" "LARCENY_PETIT_FROM_STORE_SHOPL" "AGGRAVATED_HARASSMENT_2" "HARASSMENT_SUBD_1_CIVILIAN" "LARCENY_PETIT_FROM_BUILDING_UN" "ASSAULT_2_1_UNCLASSIFIED" "OTHER" );
	position = (410 -331);
	diagnosistype = "AUXILIARY";
	DSLxSUBMODEL = "Root Submodel";
	ismapvariable = "false";
	ID = "variable9";
	label = "Internal classification";
	DSLxEXTRA_DEFINITIONxDIAGNOSIS_TYPE = "AUXILIARY";
	excludepolicy = "include whole CPT";
}
node Time
{
	states = ("SLOT_00_06" "SLOT_06_12" "SLOT_12_18" "SLOT_18_24" );
	position = (13 -231);
	diagnosistype = "AUXILIARY";
	DSLxSUBMODEL = "Root Submodel";
	ismapvariable = "false";
	ID = "variable2";
	label = "Time slot";
	DSLxEXTRA_DEFINITIONxDIAGNOSIS_TYPE = "AUXILIARY";
	excludepolicy = "include whole CPT";
}
node Jurisdiction
{
	states = ("state0" "state1" );
	position = (401 -439);
	diagnosistype = "AUXILIARY";
	DSLxSUBMODEL = "Root Submodel";
	ismapvariable = "false";
	ID = "variable1";
	label = "Jurisdiction responsible";
	DSLxEXTRA_DEFINITIONxDIAGNOSIS_TYPE = "AUXILIARY";
	excludepolicy = "include whole CPT";
}
node Park
{
	states = ("YES" "NO" );
	position = (444 -210);
	diagnosistype = "AUXILIARY";
	DSLxSUBMODEL = "Root Submodel";
	ismapvariable = "false";
	ID = "variable6";
	label = "Name of NYC park";
	DSLxEXTRA_DEFINITIONxDIAGNOSIS_TYPE = "AUXILIARY";
	excludepolicy = "include whole CPT";
}
node Borough
{
	states = ("BRONX" "BROOKLYN" "MANHATTAN" "QUEENS" "STATEN_ISLAND" );
	position = (564 -31);
	diagnosistype = "AUXILIARY";
	DSLxSUBMODEL = "Root Submodel";
	ismapvariable = "false";
	ID = "variable4";
	label = "Borough";
	DSLxEXTRA_DEFINITIONxDIAGNOSIS_TYPE = "AUXILIARY";
	excludepolicy = "include whole CPT";
}
node Month
{
	states = ("January" "February" "March" "April" "May" "June" "July" "August" "September" "October" "November" "December" );
	position = (94 -21);
	diagnosistype = "AUXILIARY";
	DSLxSUBMODEL = "Root Submodel";
	ismapvariable = "false";
	ID = "variable0";
	label = "Month of ocurrence";
	DSLxEXTRA_DEFINITIONxDIAGNOSIS_TYPE = "AUXILIARY";
	excludepolicy = "include whole CPT";
}
potential ( Housing | Borough )
{
	data = ((	0.06476779135609353	0.9352322086439065	)
		(	0.9262918473239073	0.07370815267609263	)
		(	0.9566794504419044	0.04332054955809567	)
		(	0.9862289814941972	0.013771018505802755	)
		(	0.9514438698458098	0.048556130154190295	));
}
potential ( Location | Time Borough )
{
	data = (((	0.46236866148915723	0.24132023755108206	0.033177249885811284	0.019301050708106563	0.0010278666057603495	0.24280493376008258	)
		(	0.4319355244931252	0.2684800402970779	0.024220291315107022	0.0220795030013064	0.0013432397263103894	0.25194140116707303	)
		(	0.47623898538218806	0.24937605052709846	0.02770845005861094	0.009473845056793741	2.5467325421510054E-4	0.23694799572109357	)
		(	0.38558171118168616	0.28027387958377187	0.03321638750567296	0.02201222272518208	6.224535989134934E-4	0.27829334540477346	)
		(	0.39544047283986705	0.321137067266892	0.0315226569096894	0.017450042217794132	2.814522938359054E-4	0.23416830847192127	))
		((	0.6170149104873739	0.17518575774210615	0.02453498229691487	0.015209694310109219	9.973570039406045E-5	0.1679549194631018	)
		(	0.6043088893780961	0.20946193936703333	0.01647948322690262	0.01578213315720251	4.0372898774106424E-4	0.15356382588302442	)
		(	0.6351153682821143	0.16085499929202896	0.015712735337102827	0.008634926626721554	0.0	0.17968197046203233	)
		(	0.5914174972312958	0.1915836101880958	0.02558139534881279	0.014562569213707282	0.0	0.17685492801808844	)
		(	0.6029481692819904	0.2643842130289958	0.03067047075609951	0.00998573466475984	2.377555872559962E-4	0.09177365668089853	))
		((	0.5399843255639909	0.20606078197999653	0.03805404777799935	0.018809323386799685	2.9026733621699514E-4	0.19680125395499667	)
		(	0.5535166198653299	0.2274973334201356	0.019808876989111806	0.019482357038711613	2.394479636041427E-4	0.17945536472310694	)
		(	0.6117875805081661	0.16038400777704354	0.02765828168670751	0.011350103293203082	9.72171588285264E-5	0.18872280957605123	)
		(	0.5540786108491169	0.20591600484604344	0.027796473280405864	0.016152914254903408	1.682595234890355E-4	0.19588773724604133	)
		(	0.5376402216519376	0.2777402351669678	0.013380186511698446	0.03405865657519604	2.7030679821596863E-4	0.1369103932959841	))
		((	0.46293636603485044	0.24603570067692052	0.04845091889668435	0.02157282293279303	7.620834188227538E-4	0.22024210803992883	)
		(	0.46774415090911836	0.2662194954440673	0.03154617462570798	0.022160157501905607	7.325671901471854E-4	0.21159745432905355	)
		(	0.5298747763863455	0.21207513416813828	0.03804412641622481	0.013714967203308942	2.6833631484817497E-4	0.20602265951113433	)
		(	0.45596654211388926	0.26821157999393486	0.025127695313793896	0.033115080045291956	4.4564807514289173E-4	0.21713345445794727	)
		(	0.46496339459120084	0.3275063499181415	0.018526819064708003	0.032421933363214	5.976393246682582E-4	0.15598386373806739	)));
}
potential ( Description | Location Park Housing )
{
	data = ((((	0.5	0.5	0.0	0.0	0.0	0.0	0.0	0.0	)
		(	0.5	0.5	0.0	0.0	0.0	0.0	0.0	0.0	))
		((	0.5	0.5	0.0	0.0	0.0	0.0	0.0	0.0	)
		(	0.5	0.5	0.0	0.0	0.0	0.0	0.0	0.0	)))
		(((	0.5	0.5	0.0	0.0	0.0	0.0	0.0	0.0	)
		(	0.5	0.5	0.0	0.0	0.0	0.0	0.0	0.0	))
		((	0.5	0.5	0.0	0.0	0.0	0.0	0.0	0.0	)
		(	0.5	0.5	0.0	0.0	0.0	0.0	0.0	0.0	)))
		(((	0.5	0.5	0.0	0.0	0.0	0.0	0.0	0.0	)
		(	0.5	0.5	0.0	0.0	0.0	0.0	0.0	0.0	))
		((	0.5	0.5	0.0	0.0	0.0	0.0	0.0	0.0	)
		(	0.5	0.5	0.0	0.0	0.0	0.0	0.0	0.0	)))
		(((	0.5	0.5	0.0	0.0	0.0	0.0	0.0	0.0	)
		(	0.5	0.5	0.0	0.0	0.0	0.0	0.0	0.0	))
		((	0.5	0.5	0.0	0.0	0.0	0.0	0.0	0.0	)
		(	0.5	0.5	0.0	0.0	0.0	0.0	0.0	0.0	)))
		(((	0.5	0.5	0.0	0.0	0.0	0.0	0.0	0.0	)
		(	0.5	0.5	0.0	0.0	0.0	0.0	0.0	0.0	))
		((	0.5	0.5	0.0	0.0	0.0	0.0	0.0	0.0	)
		(	0.5	0.5	0.0	0.0	0.0	0.0	0.0	0.0	)))
		(((	0.5	0.5	0.0	0.0	0.0	0.0	0.0	0.0	)
		(	0.5	0.5	0.0	0.0	0.0	0.0	0.0	0.0	))
		((	0.5	0.5	0.0	0.0	0.0	0.0	0.0	0.0	)
		(	0.5	0.5	0.0	0.0	0.0	0.0	0.0	0.0	))));
}
potential ( Level | Classification )
{
	data = ((	0.0	0.0	1.0	)
		(	1.0	0.0	0.0	)
		(	1.0	0.0	0.0	)
		(	1.0	0.0	0.0	)
		(	0.0	0.0	1.0	)
		(	1.0	0.0	0.0	)
		(	0.0	1.0	0.0	)
		(	0.547342962883	0.312950601916	0.139706435201	));
}
potential ( Outcome | Classification Jurisdiction Level Time )
{
	data = (((((	0.5	0.5	)
		(	0.5	0.5	)
		(	0.5	0.5	)
		(	0.5	0.5	))
		((	0.5	0.5	)
		(	0.5	0.5	)
		(	0.5	0.5	)
		(	0.5	0.5	))
		((	0.5	0.5	)
		(	0.5	0.5	)
		(	0.5	0.5	)
		(	0.5	0.5	)))
		(((	0.5	0.5	)
		(	0.5	0.5	)
		(	0.5	0.5	)
		(	0.5	0.5	))
		((	0.5	0.5	)
		(	0.5	0.5	)
		(	0.5	0.5	)
		(	0.5	0.5	))
		((	0.5	0.5	)
		(	0.5	0.5	)
		(	0.5	0.5	)
		(	0.5	0.5	))))
		((((	0.5	0.5	)
		(	0.5	0.5	)
		(	0.5	0.5	)
		(	0.5	0.5	))
		((	0.5	0.5	)
		(	0.5	0.5	)
		(	0.5	0.5	)
		(	0.5	0.5	))
		((	0.5	0.5	)
		(	0.5	0.5	)
		(	0.5	0.5	)
		(	0.5	0.5	)))
		(((	0.5	0.5	)
		(	0.5	0.5	)
		(	0.5	0.5	)
		(	0.5	0.5	))
		((	0.5	0.5	)
		(	0.5	0.5	)
		(	0.5	0.5	)
		(	0.5	0.5	))
		((	0.5	0.5	)
		(	0.5	0.5	)
		(	0.5	0.5	)
		(	0.5	0.5	))))
		((((	0.5	0.5	)
		(	0.5	0.5	)
		(	0.5	0.5	)
		(	0.5	0.5	))
		((	0.5	0.5	)
		(	0.5	0.5	)
		(	0.5	0.5	)
		(	0.5	0.5	))
		((	0.5	0.5	)
		(	0.5	0.5	)
		(	0.5	0.5	)
		(	0.5	0.5	)))
		(((	0.5	0.5	)
		(	0.5	0.5	)
		(	0.5	0.5	)
		(	0.5	0.5	))
		((	0.5	0.5	)
		(	0.5	0.5	)
		(	0.5	0.5	)
		(	0.5	0.5	))
		((	0.5	0.5	)
		(	0.5	0.5	)
		(	0.5	0.5	)
		(	0.5	0.5	))))
		((((	0.5	0.5	)
		(	0.5	0.5	)
		(	0.5	0.5	)
		(	0.5	0.5	))
		((	0.5	0.5	)
		(	0.5	0.5	)
		(	0.5	0.5	)
		(	0.5	0.5	))
		((	0.5	0.5	)
		(	0.5	0.5	)
		(	0.5	0.5	)
		(	0.5	0.5	)))
		(((	0.5	0.5	)
		(	0.5	0.5	)
		(	0.5	0.5	)
		(	0.5	0.5	))
		((	0.5	0.5	)
		(	0.5	0.5	)
		(	0.5	0.5	)
		(	0.5	0.5	))
		((	0.5	0.5	)
		(	0.5	0.5	)
		(	0.5	0.5	)
		(	0.5	0.5	))))
		((((	0.5	0.5	)
		(	0.5	0.5	)
		(	0.5	0.5	)
		(	0.5	0.5	))
		((	0.5	0.5	)
		(	0.5	0.5	)
		(	0.5	0.5	)
		(	0.5	0.5	))
		((	0.5	0.5	)
		(	0.5	0.5	)
		(	0.5	0.5	)
		(	0.5	0.5	)))
		(((	0.5	0.5	)
		(	0.5	0.5	)
		(	0.5	0.5	)
		(	0.5	0.5	))
		((	0.5	0.5	)
		(	0.5	0.5	)
		(	0.5	0.5	)
		(	0.5	0.5	))
		((	0.5	0.5	)
		(	0.5	0.5	)
		(	0.5	0.5	)
		(	0.5	0.5	))))
		((((	0.5	0.5	)
		(	0.5	0.5	)
		(	0.5	0.5	)
		(	0.5	0.5	))
		((	0.5	0.5	)
		(	0.5	0.5	)
		(	0.5	0.5	)
		(	0.5	0.5	))
		((	0.5	0.5	)
		(	0.5	0.5	)
		(	0.5	0.5	)
		(	0.5	0.5	)))
		(((	0.5	0.5	)
		(	0.5	0.5	)
		(	0.5	0.5	)
		(	0.5	0.5	))
		((	0.5	0.5	)
		(	0.5	0.5	)
		(	0.5	0.5	)
		(	0.5	0.5	))
		((	0.5	0.5	)
		(	0.5	0.5	)
		(	0.5	0.5	)
		(	0.5	0.5	))))
		((((	0.5	0.5	)
		(	0.5	0.5	)
		(	0.5	0.5	)
		(	0.5	0.5	))
		((	0.5	0.5	)
		(	0.5	0.5	)
		(	0.5	0.5	)
		(	0.5	0.5	))
		((	0.5	0.5	)
		(	0.5	0.5	)
		(	0.5	0.5	)
		(	0.5	0.5	)))
		(((	0.5	0.5	)
		(	0.5	0.5	)
		(	0.5	0.5	)
		(	0.5	0.5	))
		((	0.5	0.5	)
		(	0.5	0.5	)
		(	0.5	0.5	)
		(	0.5	0.5	))
		((	0.5	0.5	)
		(	0.5	0.5	)
		(	0.5	0.5	)
		(	0.5	0.5	))))
		((((	0.5	0.5	)
		(	0.5	0.5	)
		(	0.5	0.5	)
		(	0.5	0.5	))
		((	0.5	0.5	)
		(	0.5	0.5	)
		(	0.5	0.5	)
		(	0.5	0.5	))
		((	0.5	0.5	)
		(	0.5	0.5	)
		(	0.5	0.5	)
		(	0.5	0.5	)))
		(((	0.5	0.5	)
		(	0.5	0.5	)
		(	0.5	0.5	)
		(	0.5	0.5	))
		((	0.5	0.5	)
		(	0.5	0.5	)
		(	0.5	0.5	)
		(	0.5	0.5	))
		((	0.5	0.5	)
		(	0.5	0.5	)
		(	0.5	0.5	)
		(	0.5	0.5	)))));
}
potential ( Precinct | Borough Park Housing )
{
	data = ((((	0.5	0.5	)
		(	0.5	0.5	))
		((	0.5	0.5	)
		(	0.5	0.5	)))
		(((	0.5	0.5	)
		(	0.5	0.5	))
		((	0.5	0.5	)
		(	0.5	0.5	)))
		(((	0.5	0.5	)
		(	0.5	0.5	))
		((	0.5	0.5	)
		(	0.5	0.5	)))
		(((	0.5	0.5	)
		(	0.5	0.5	))
		((	0.5	0.5	)
		(	0.5	0.5	)))
		(((	0.5	0.5	)
		(	0.5	0.5	))
		((	0.5	0.5	)
		(	0.5	0.5	))));
}
potential ( Day | )
{
	data = (	0.15553425149684447	0.1466888897238533	0.14503886946485495	0.14424101156685576	0.14161559958385836	0.13521393870286477	0.13166743946086834	);
}
potential ( Classification | Description )
{
	data = ((	0.5	0.5	0.0	0.0	0.0	0.0	0.0	0.0	)
		(	0.5	0.5	0.0	0.0	0.0	0.0	0.0	0.0	)
		(	0.5	0.5	0.0	0.0	0.0	0.0	0.0	0.0	)
		(	0.5	0.5	0.0	0.0	0.0	0.0	0.0	0.0	)
		(	0.5	0.5	0.0	0.0	0.0	0.0	0.0	0.0	)
		(	0.5	0.5	0.0	0.0	0.0	0.0	0.0	0.0	)
		(	0.5	0.5	0.0	0.0	0.0	0.0	0.0	0.0	)
		(	0.5	0.5	0.0	0.0	0.0	0.0	0.0	0.0	));
}
potential ( Time | Month Day )
{
	data = (((	0.22319362303922316	0.18398045770118396	0.3112625353563112	0.28156338390328156	)
		(	0.117785169243	0.19956955586	0.31246331442	0.370181960477	)
		(	0.138985005767139	0.2006920415222007	0.3487120338333487	0.3116109188773116	)
		(	0.231039091213	0.153859004343	0.300367524223	0.314734380221	)
		(	0.115669274688	0.203637132586	0.371114400508	0.309579192218	)
		(	0.136846867225	0.205157204252	0.361682877177	0.296313051346	)
		(	0.23389641730076613	0.1498050863188502	0.31019120103968983	0.3061072953406939	))
		((	0.15514837681715515	0.18203545110518204	0.3202549292973203	0.3425612427803426	)
		(	0.2089552238802059	0.33924129353238	0.0	0.45180348258741404	)
		(	0.126330588472	0.210283189395	0.308495681864	0.354890540269	)
		(	0.23815213062523816	0.14954201513314955	0.2951015531662951	0.31720430107531716	)
		(	0.10888557425989114	0.20029831664179976	0.36927338589363073	0.32154272320467847	)
		(	0.1485909479078514	0.2037574722457962	0.2823228010247177	0.3653287788216346	)
		(	0.2482072634742482	0.15105250983115107	0.30534351145030536	0.29539671524429545	))
		((	0.16228467815	0.186400725295	0.327107887579	0.324206708976	)
		(	0.1293956462168706	0.2088597960117911	0.367940325772632	0.2938042319987062	)
		(	0.12671594509	0.198219942676	0.360084477297	0.314979634937	)
		(	0.24310776942375686	0.15982263350684014	0.2932330827067067	0.30383651436269615	)
		(	0.117778439547	0.201161405599	0.378796902918	0.302263251936	)
		(	0.133965108766	0.208916648719	0.363127288391	0.293990954124	)
		(	0.263112078346	0.142328618063	0.302285092492	0.292274211099	))
		((	0.1602046311251602	0.18982229402318984	0.3342757135163343	0.31569736133531573	)
		(	0.121894130356	0.198055455528	0.362261433201	0.317788980915	)
		(	0.149150644017	0.192831808848	0.354489453052	0.303528094083	)
		(	0.24958276437575044	0.16264603246883738	0.28796844181471204	0.2998027613407002	)
		(	0.123340040241	0.2	0.359356136821	0.317303822938	)
		(	0.133529990167	0.213962635202	0.37069813176	0.281809242871	)
		(	0.249895702962	0.153942428035	0.292448894451	0.303712974552	))
		((	0.154553339115	0.18473547268	0.333044232437	0.327666955768	)
		(	0.12313961729287688	0.20836286321779166	0.3515237420266485	0.31697377746268307	)
		(	0.134788884879	0.193251533742	0.348430169614	0.323529411765	)
		(	0.242345997787	0.158613057912	0.289007746219	0.310033198082	)
		(	0.11773319666111774	0.2080831746962081	0.36359642700236366	0.3105872016403106	)
		(	0.140104007342	0.200978892628	0.357754665035	0.301162434995	)
		(	0.257129426512	0.152146662488	0.292854904419	0.297869006581	))
		((	0.14776632302400003	0.20240549828200002	0.33384879725100003	0.31597938144300003	)
		(	0.143567015847	0.210717163578	0.334139135106	0.311576685469	)
		(	0.14383757506414382	0.19802688018319803	0.33843294252233846	0.3197026022303197	)
		(	0.239633027523	0.155412844037	0.291009174312	0.313944954128	)
		(	0.126670327659	0.208676551345	0.349807797913	0.314845323083	)
		(	0.14293361884385705	0.21234832262678766	0.3511777301926488	0.29354032833670646	)
		(	0.23801369863	0.160578386606	0.287480974125	0.313926940639	))
		((	0.1719501839798281	0.19728276252480273	0.3155958109256844	0.3151712425696849	)
		(	0.15402588066115402	0.19698058950419697	0.34345794392534346	0.3055355859093055	)
		(	0.154304277206	0.199422486916	0.339108464176	0.307164771702	)
		(	0.234586024662	0.162654139753	0.287433940106	0.315325895479	)
		(	0.14783253056685214	0.18914412745481085	0.3423490181546576	0.32067432382367933	)
		(	0.178858599725	0.195136301236	0.319670523632	0.306334575407	)
		(	0.244347419305	0.167940121628	0.280523935755	0.307188523312	))
		((	0.172777585611	0.177966101695	0.328260117606	0.320996195088	)
		(	0.150477016479	0.187337380746	0.334634287366	0.327551315409	)
		(	0.15108438126484894	0.18516493530181488	0.33205759066866797	0.33169309276466835	)
		(	0.244589125462	0.16822101003	0.275734647193	0.311455217315	)
		(	0.137769309688	0.194489227612	0.336655430163	0.331086032537	)
		(	0.168857431749	0.19991333237	0.329914776831	0.30131445905	)
		(	0.267870302137	0.153279292557	0.282424465733	0.296425939573	))
		((	0.141548590239	0.203807070273	0.330327751539	0.324316587949	)
		(	0.135986733001864	0.21614151464878384	0.3442049014186558	0.3036668509306963	)
		(	0.15032774945384964	0.20772032046579225	0.33343044428266655	0.30852148579769145	)
		(	0.24008933556675988	0.16099013586483898	0.28959612879171037	0.30932439977669063	)
		(	0.141948756312	0.214325790163	0.347297550028	0.296427903497	)
		(	0.155373592631	0.202047082907	0.34636642784	0.296212896622	)
		(	0.26756968983126755	0.16117000392616118	0.27463682764027464	0.2966234786022966	))
		((	0.131985940246	0.205448154657	0.333919156415	0.328646748682	)
		(	0.129062209842	0.209470752089	0.364902506964	0.296564531105	)
		(	0.14692626645014695	0.21885703984121888	0.33693888588433696	0.2972778078242973	)
		(	0.2493399824	0.168671164564	0.284540921091	0.297447931945	)
		(	0.122120247237	0.198164450272	0.356808391084	0.322906911407	)
		(	0.14601978332514604	0.2027005809392027	0.34353901711434354	0.30774061862130775	)
		(	0.278876834716	0.152839821315	0.285577536694	0.282705807275	))
		((	0.154405086285	0.182924613987	0.332061762035	0.330608537693	)
		(	0.13051555968400003	0.22263508283000003	0.35593745161800006	0.29091190586800003	)
		(	0.145402416547	0.213598197829	0.328691378251	0.312308007373	)
		(	0.21691248770878307	0.16322517207483678	0.3160275319566839	0.3038348082596961	)
		(	0.132793522267	0.214898785425	0.346234817814	0.306072874494	)
		(	0.123803446075	0.237609019358	0.36545415869	0.273133375877	)
		(	0.25800296798774197	0.16620733517083378	0.2927708289167072	0.2830188679247169	))
		((	0.14991816693914992	0.19247135842919247	0.33682487725033683	0.3207855973813208	)
		(	0.129472874182	0.207002693344	0.367064255483	0.296460176991	)
		(	0.14105361595985896	0.1931109725688069	0.3488154613466512	0.31701995012468304	)
		(	0.247735748535	0.154679453028	0.29603977979	0.301545018647	)
		(	0.13099041533513098	0.21105055440721104	0.3642172523963642	0.2937417778612937	)
		(	0.13629469122413632	0.20563380281720564	0.3631635969663632	0.2949079089922949	)
		(	0.263289984029	0.151266255989	0.285420944559	0.300022815423	)));
}
potential ( Jurisdiction | Classification Level )
{
	data = (((	0.5	0.5	)
		(	0.5	0.5	)
		(	0.5	0.5	))
		((	0.5	0.5	)
		(	0.5	0.5	)
		(	0.5	0.5	))
		((	0.5	0.5	)
		(	0.5	0.5	)
		(	0.5	0.5	))
		((	0.5	0.5	)
		(	0.5	0.5	)
		(	0.5	0.5	))
		((	0.5	0.5	)
		(	0.5	0.5	)
		(	0.5	0.5	))
		((	0.5	0.5	)
		(	0.5	0.5	)
		(	0.5	0.5	))
		((	0.5	0.5	)
		(	0.5	0.5	)
		(	0.5	0.5	))
		((	0.5	0.5	)
		(	0.5	0.5	)
		(	0.5	0.5	)));
}
potential ( Park | Borough )
{
	data = ((	0.00939387372447549	0.9906061262755245	)
		(	0.009524486459593905	0.9904755135404061	)
		(	0.014102553003605642	0.9858974469963944	)
		(	0.009511831661722663	0.9904881683382774	)
		(	0.003340808201	0.996659191799	));
}
potential ( Borough | )
{
	data = (	0.29383630880291184	0.24124902882992763	0.2216627262929335	0.1976153081429407	0.04563662793128631	);
}
potential ( Month | )
{
	data = (	0.0806504839363	0.0727888684203	0.0832403891541	0.0830837416611	0.0879774093429	0.0877915209845	0.0874991123309	0.0899031291903	0.0834993796759	0.0865028342753	0.0783759623378	0.0786871686906	);
}
