net
{
	propagationenginegenerator1791944048146838126L = "edu.ucla.belief.approx.BeliefPropagationSettings@7483684c";
	recoveryenginegenerator6944530267470113528l = "edu.ucla.util.SettingsImpl@1e6880f";
	node_size = (130.0 55.0);
}

node Level
{
	states = ("MISDEMEANOR" "FELONY" "VIOLATION" );
	position = (652 -512);
	diagnosistype = "AUXILIARY";
	DSLxSUBMODEL = "Root Submodel";
	ismapvariable = "false";
	ID = "variable2";
	label = "Level of offense";
	DSLxEXTRA_DEFINITIONxDIAGNOSIS_TYPE = "AUXILIARY";
	excludepolicy = "include whole CPT";
}
node Borough
{
	states = ("BRONX" "BROOKLYN" "MANHATTAN" "QUEENS" "STATEN_ISLAND" );
	position = (619 10);
	diagnosistype = "AUXILIARY";
	DSLxSUBMODEL = "Root Submodel";
	ismapvariable = "false";
	ID = "variable4";
	label = "Borough";
	DSLxEXTRA_DEFINITIONxDIAGNOSIS_TYPE = "AUXILIARY";
	excludepolicy = "include whole CPT";
}
node Precinct
{
	states = ("state0" "state1" );
	position = (930 -97);
	diagnosistype = "AUXILIARY";
	DSLxSUBMODEL = "Root Submodel";
	ismapvariable = "false";
	ID = "variable1";
	label = "Precinct";
	DSLxEXTRA_DEFINITIONxDIAGNOSIS_TYPE = "AUXILIARY";
	excludepolicy = "include whole CPT";
}
node Description
{
	states = ("PETIT_LARCENY" "HARRASSMENT_2" "ASSAULT_3_RELATED_OFFENSES" "CRIMINAL_MISCHIEF_RELATED_OF" "GRAND_LARCENY" "OFF_AGNST_PUB_ORD_SENSBLTY" "DANGEROUS_DRUGS" "FELONY_ASSAULT" "ROBBERY" "MISCELLANEOUS_PENAL_LAW" "BURGLARY" "DANGEROUS_WEAPONS" "OFFENSES_AGNST_PUBLIC_ADMINISTRATION" "OTHER" );
	position = (487 -335);
	diagnosistype = "AUXILIARY";
	DSLxSUBMODEL = "Root Submodel";
	ismapvariable = "false";
	ID = "variable8";
	label = "Description of offense";
	DSLxEXTRA_DEFINITIONxDIAGNOSIS_TYPE = "AUXILIARY";
	excludepolicy = "include whole CPT";
}
node Outcome
{
	states = ("COMPLETED" "ATTEMPTED" );
	position = (16 -400);
	diagnosistype = "AUXILIARY";
	DSLxSUBMODEL = "Root Submodel";
	ismapvariable = "false";
	ID = "variable0";
	label = "Outcome of crime";
	DSLxEXTRA_DEFINITIONxDIAGNOSIS_TYPE = "AUXILIARY";
	excludepolicy = "include whole CPT";
}
node Location
{
	states = ("INSIDE" "OUTSIDE" );
	position = (349 -21);
	diagnosistype = "AUXILIARY";
	DSLxSUBMODEL = "Root Submodel";
	ismapvariable = "false";
	ID = "variable5";
	label = "Outside or inside";
	DSLxEXTRA_DEFINITIONxDIAGNOSIS_TYPE = "AUXILIARY";
	excludepolicy = "include whole CPT";
}
node Park
{
	states = ("YES" "NO" );
	position = (729 -187);
	diagnosistype = "AUXILIARY";
	DSLxSUBMODEL = "Root Submodel";
	ismapvariable = "false";
	ID = "variable6";
	label = "Occured in a park?";
	DSLxEXTRA_DEFINITIONxDIAGNOSIS_TYPE = "AUXILIARY";
	excludepolicy = "include whole CPT";
}
node Jurisdiction
{
	states = ("NY_POLICE_DEPARTMENT" "NY_HOUSING_POLICE" "NY_TRANSIT_POLICE" "PORT_AUTHORITY" "DEPT_OF_CORRECTONS" "OTHER" );
	position = (232 -403);
	diagnosistype = "AUXILIARY";
	DSLxSUBMODEL = "Root Submodel";
	ismapvariable = "false";
	ID = "variable1";
	label = "Jurisdiction responsible";
	DSLxEXTRA_DEFINITIONxDIAGNOSIS_TYPE = "AUXILIARY";
	excludepolicy = "include whole CPT";
}
node Premise
{
	states = ("STREET" "RESIDENCE_APARTMENT_HOUSE" "RESIDENCE_PUBLIC_HOUSING" "COMMERCIAL_BUILDING" "CHAIN_STORE" "TRANSIT_NYCSUBWAY" "BAR_NIGHTCLUB" "OTHER" );
	position = (410 -135);
	diagnosistype = "AUXILIARY";
	DSLxSUBMODEL = "Root Submodel";
	ismapvariable = "false";
	ID = "variable1";
	label = "Where did it occur?";
	excludepolicy = "include whole CPT";
}
node Month
{
	states = ("January" "February" "March" "April" "May" "June" "July" "August" "September" "October" "November" "December" );
	position = (5 -25);
	diagnosistype = "AUXILIARY";
	DSLxSUBMODEL = "Root Submodel";
	ismapvariable = "false";
	ID = "variable0";
	label = "Month of ocurrence";
	DSLxEXTRA_DEFINITIONxDIAGNOSIS_TYPE = "AUXILIARY";
	excludepolicy = "include whole CPT";
}
node Day
{
	states = ("Friday" "Wednesday" "Thursday" "Saturday" "Tuesday" "Monday" "Sunday" );
	position = (154 -28);
	diagnosistype = "AUXILIARY";
	DSLxSUBMODEL = "Root Submodel";
	ismapvariable = "false";
	ID = "variable1";
	label = "Day of the week";
	DSLxEXTRA_DEFINITIONxDIAGNOSIS_TYPE = "AUXILIARY";
	excludepolicy = "include whole CPT";
}
node Time
{
	states = ("SLOT_00_06" "SLOT_06_12" "SLOT_12_18" "SLOT_18_24" );
	position = (16 -231);
	diagnosistype = "AUXILIARY";
	DSLxSUBMODEL = "Root Submodel";
	ismapvariable = "false";
	ID = "variable2";
	label = "Time slot";
	DSLxEXTRA_DEFINITIONxDIAGNOSIS_TYPE = "AUXILIARY";
	excludepolicy = "include whole CPT";
}
potential ( Level | Description )
{
	data = ((	0.568417870360375	0.1641188252395	0.267463304400125	)
		(	0.568417870360375	0.1641188252395	0.267463304400125	)
		(	0.568417870360375	0.1641188252395	0.267463304400125	)
		(	0.568417870360375	0.1641188252395	0.267463304400125	)
		(	0.568417870360375	0.1641188252395	0.267463304400125	)
		(	0.568417870360375	0.1641188252395	0.267463304400125	)
		(	0.568417870360375	0.1641188252395	0.267463304400125	)
		(	0.3333333333333333	0.3333333333333333	0.3333333333333333	)
		(	0.3333333333333333	0.3333333333333333	0.3333333333333333	)
		(	0.3333333333333333	0.3333333333333333	0.3333333333333333	)
		(	0.3333333333333333	0.3333333333333333	0.3333333333333333	)
		(	0.3333333333333333	0.3333333333333333	0.3333333333333333	)
		(	0.3333333333333333	0.3333333333333333	0.3333333333333333	)
		(	0.568417870360375	0.1641188252395	0.267463304400125	));
}
potential ( Borough | )
{
	data = (	0.29383630880291184	0.24124902882992763	0.2216627262929335	0.1976153081429407	0.04563662793128631	);
}
potential ( Precinct | Borough Park )
{
	data = (((	0.5	0.5	)
		(	0.5	0.5	))
		((	0.5	0.5	)
		(	0.5	0.5	))
		((	0.5	0.5	)
		(	0.5	0.5	))
		((	0.5	0.5	)
		(	0.5	0.5	))
		((	0.5	0.5	)
		(	0.5	0.5	)));
}
potential ( Description | Time Premise Park )
{
	data = ((((	0.169722528574	0.137712218435	0.109664293831	0.102054926141	0.0924507887173	0.0475486264287	0.0473084185549	0.0435194004411	0.0323737550966	0.0290024898068	0.0271330459194	0.021871449101	0.0186631074126	0.1209749515406	)
		(	0.169722528574	0.137712218435	0.109664293831	0.102054926141	0.0924507887173	0.0475486264287	0.0473084185549	0.0435194004411	0.0323737550966	0.0290024898068	0.0271330459194	0.021871449101	0.0186631074126	0.1209749515406	))
		((	0.169722528574	0.137712218435	0.109664293831	0.102054926141	0.0924507887173	0.0475486264287	0.0473084185549	0.0435194004411	0.0323737550966	0.0290024898068	0.0271330459194	0.021871449101	0.0186631074126	0.1209749515406	)
		(	0.169722528574	0.137712218435	0.109664293831	0.102054926141	0.0924507887173	0.0475486264287	0.0473084185549	0.0435194004411	0.0323737550966	0.0290024898068	0.0271330459194	0.021871449101	0.0186631074126	0.1209749515406	))
		((	0.07142857142857142	0.07142857142857142	0.07142857142857142	0.07142857142857142	0.07142857142857142	0.07142857142857142	0.07142857142857142	0.07142857142857142	0.07142857142857142	0.07142857142857142	0.07142857142857142	0.07142857142857142	0.07142857142857142	0.07142857142857142	)
		(	0.07142857142857142	0.07142857142857142	0.07142857142857142	0.07142857142857142	0.07142857142857142	0.07142857142857142	0.07142857142857142	0.07142857142857142	0.07142857142857142	0.07142857142857142	0.07142857142857142	0.07142857142857142	0.07142857142857142	0.07142857142857142	))
		((	0.07142857142857142	0.07142857142857142	0.07142857142857142	0.07142857142857142	0.07142857142857142	0.07142857142857142	0.07142857142857142	0.07142857142857142	0.07142857142857142	0.07142857142857142	0.07142857142857142	0.07142857142857142	0.07142857142857142	0.07142857142857142	)
		(	0.07142857142857142	0.07142857142857142	0.07142857142857142	0.07142857142857142	0.07142857142857142	0.07142857142857142	0.07142857142857142	0.07142857142857142	0.07142857142857142	0.07142857142857142	0.07142857142857142	0.07142857142857142	0.07142857142857142	0.07142857142857142	))
		((	0.07142857142857142	0.07142857142857142	0.07142857142857142	0.07142857142857142	0.07142857142857142	0.07142857142857142	0.07142857142857142	0.07142857142857142	0.07142857142857142	0.07142857142857142	0.07142857142857142	0.07142857142857142	0.07142857142857142	0.07142857142857142	)
		(	0.07142857142857142	0.07142857142857142	0.07142857142857142	0.07142857142857142	0.07142857142857142	0.07142857142857142	0.07142857142857142	0.07142857142857142	0.07142857142857142	0.07142857142857142	0.07142857142857142	0.07142857142857142	0.07142857142857142	0.07142857142857142	))
		((	0.07142857142857142	0.07142857142857142	0.07142857142857142	0.07142857142857142	0.07142857142857142	0.07142857142857142	0.07142857142857142	0.07142857142857142	0.07142857142857142	0.07142857142857142	0.07142857142857142	0.07142857142857142	0.07142857142857142	0.07142857142857142	)
		(	0.07142857142857142	0.07142857142857142	0.07142857142857142	0.07142857142857142	0.07142857142857142	0.07142857142857142	0.07142857142857142	0.07142857142857142	0.07142857142857142	0.07142857142857142	0.07142857142857142	0.07142857142857142	0.07142857142857142	0.07142857142857142	))
		((	0.07142857142857142	0.07142857142857142	0.07142857142857142	0.07142857142857142	0.07142857142857142	0.07142857142857142	0.07142857142857142	0.07142857142857142	0.07142857142857142	0.07142857142857142	0.07142857142857142	0.07142857142857142	0.07142857142857142	0.07142857142857142	)
		(	0.07142857142857142	0.07142857142857142	0.07142857142857142	0.07142857142857142	0.07142857142857142	0.07142857142857142	0.07142857142857142	0.07142857142857142	0.07142857142857142	0.07142857142857142	0.07142857142857142	0.07142857142857142	0.07142857142857142	0.07142857142857142	))
		((	0.07142857142857142	0.07142857142857142	0.07142857142857142	0.07142857142857142	0.07142857142857142	0.07142857142857142	0.07142857142857142	0.07142857142857142	0.07142857142857142	0.07142857142857142	0.07142857142857142	0.07142857142857142	0.07142857142857142	0.07142857142857142	)
		(	0.07142857142857142	0.07142857142857142	0.07142857142857142	0.07142857142857142	0.07142857142857142	0.07142857142857142	0.07142857142857142	0.07142857142857142	0.07142857142857142	0.07142857142857142	0.07142857142857142	0.07142857142857142	0.07142857142857142	0.07142857142857142	)))
		(((	0.169722528574	0.137712218435	0.109664293831	0.102054926141	0.0924507887173	0.0475486264287	0.0473084185549	0.0435194004411	0.0323737550966	0.0290024898068	0.0271330459194	0.021871449101	0.0186631074126	0.1209749515406	)
		(	0.169722528574	0.137712218435	0.109664293831	0.102054926141	0.0924507887173	0.0475486264287	0.0473084185549	0.0435194004411	0.0323737550966	0.0290024898068	0.0271330459194	0.021871449101	0.0186631074126	0.1209749515406	))
		((	0.169722528574	0.137712218435	0.109664293831	0.102054926141	0.0924507887173	0.0475486264287	0.0473084185549	0.0435194004411	0.0323737550966	0.0290024898068	0.0271330459194	0.021871449101	0.0186631074126	0.1209749515406	)
		(	0.169722528574	0.137712218435	0.109664293831	0.102054926141	0.0924507887173	0.0475486264287	0.0473084185549	0.0435194004411	0.0323737550966	0.0290024898068	0.0271330459194	0.021871449101	0.0186631074126	0.1209749515406	))
		((	0.07142857142857142	0.07142857142857142	0.07142857142857142	0.07142857142857142	0.07142857142857142	0.07142857142857142	0.07142857142857142	0.07142857142857142	0.07142857142857142	0.07142857142857142	0.07142857142857142	0.07142857142857142	0.07142857142857142	0.07142857142857142	)
		(	0.07142857142857142	0.07142857142857142	0.07142857142857142	0.07142857142857142	0.07142857142857142	0.07142857142857142	0.07142857142857142	0.07142857142857142	0.07142857142857142	0.07142857142857142	0.07142857142857142	0.07142857142857142	0.07142857142857142	0.07142857142857142	))
		((	0.07142857142857142	0.07142857142857142	0.07142857142857142	0.07142857142857142	0.07142857142857142	0.07142857142857142	0.07142857142857142	0.07142857142857142	0.07142857142857142	0.07142857142857142	0.07142857142857142	0.07142857142857142	0.07142857142857142	0.07142857142857142	)
		(	0.07142857142857142	0.07142857142857142	0.07142857142857142	0.07142857142857142	0.07142857142857142	0.07142857142857142	0.07142857142857142	0.07142857142857142	0.07142857142857142	0.07142857142857142	0.07142857142857142	0.07142857142857142	0.07142857142857142	0.07142857142857142	))
		((	0.07142857142857142	0.07142857142857142	0.07142857142857142	0.07142857142857142	0.07142857142857142	0.07142857142857142	0.07142857142857142	0.07142857142857142	0.07142857142857142	0.07142857142857142	0.07142857142857142	0.07142857142857142	0.07142857142857142	0.07142857142857142	)
		(	0.07142857142857142	0.07142857142857142	0.07142857142857142	0.07142857142857142	0.07142857142857142	0.07142857142857142	0.07142857142857142	0.07142857142857142	0.07142857142857142	0.07142857142857142	0.07142857142857142	0.07142857142857142	0.07142857142857142	0.07142857142857142	))
		((	0.07142857142857142	0.07142857142857142	0.07142857142857142	0.07142857142857142	0.07142857142857142	0.07142857142857142	0.07142857142857142	0.07142857142857142	0.07142857142857142	0.07142857142857142	0.07142857142857142	0.07142857142857142	0.07142857142857142	0.07142857142857142	)
		(	0.07142857142857142	0.07142857142857142	0.07142857142857142	0.07142857142857142	0.07142857142857142	0.07142857142857142	0.07142857142857142	0.07142857142857142	0.07142857142857142	0.07142857142857142	0.07142857142857142	0.07142857142857142	0.07142857142857142	0.07142857142857142	))
		((	0.07142857142857142	0.07142857142857142	0.07142857142857142	0.07142857142857142	0.07142857142857142	0.07142857142857142	0.07142857142857142	0.07142857142857142	0.07142857142857142	0.07142857142857142	0.07142857142857142	0.07142857142857142	0.07142857142857142	0.07142857142857142	)
		(	0.07142857142857142	0.07142857142857142	0.07142857142857142	0.07142857142857142	0.07142857142857142	0.07142857142857142	0.07142857142857142	0.07142857142857142	0.07142857142857142	0.07142857142857142	0.07142857142857142	0.07142857142857142	0.07142857142857142	0.07142857142857142	))
		((	0.07142857142857142	0.07142857142857142	0.07142857142857142	0.07142857142857142	0.07142857142857142	0.07142857142857142	0.07142857142857142	0.07142857142857142	0.07142857142857142	0.07142857142857142	0.07142857142857142	0.07142857142857142	0.07142857142857142	0.07142857142857142	)
		(	0.07142857142857142	0.07142857142857142	0.07142857142857142	0.07142857142857142	0.07142857142857142	0.07142857142857142	0.07142857142857142	0.07142857142857142	0.07142857142857142	0.07142857142857142	0.07142857142857142	0.07142857142857142	0.07142857142857142	0.07142857142857142	)))
		(((	0.169722528574	0.137712218435	0.109664293831	0.102054926141	0.0924507887173	0.0475486264287	0.0473084185549	0.0435194004411	0.0323737550966	0.0290024898068	0.0271330459194	0.021871449101	0.0186631074126	0.1209749515406	)
		(	0.169722528574	0.137712218435	0.109664293831	0.102054926141	0.0924507887173	0.0475486264287	0.0473084185549	0.0435194004411	0.0323737550966	0.0290024898068	0.0271330459194	0.021871449101	0.0186631074126	0.1209749515406	))
		((	0.169722528574	0.137712218435	0.109664293831	0.102054926141	0.0924507887173	0.0475486264287	0.0473084185549	0.0435194004411	0.0323737550966	0.0290024898068	0.0271330459194	0.021871449101	0.0186631074126	0.1209749515406	)
		(	0.169722528574	0.137712218435	0.109664293831	0.102054926141	0.0924507887173	0.0475486264287	0.0473084185549	0.0435194004411	0.0323737550966	0.0290024898068	0.0271330459194	0.021871449101	0.0186631074126	0.1209749515406	))
		((	0.07142857142857142	0.07142857142857142	0.07142857142857142	0.07142857142857142	0.07142857142857142	0.07142857142857142	0.07142857142857142	0.07142857142857142	0.07142857142857142	0.07142857142857142	0.07142857142857142	0.07142857142857142	0.07142857142857142	0.07142857142857142	)
		(	0.07142857142857142	0.07142857142857142	0.07142857142857142	0.07142857142857142	0.07142857142857142	0.07142857142857142	0.07142857142857142	0.07142857142857142	0.07142857142857142	0.07142857142857142	0.07142857142857142	0.07142857142857142	0.07142857142857142	0.07142857142857142	))
		((	0.07142857142857142	0.07142857142857142	0.07142857142857142	0.07142857142857142	0.07142857142857142	0.07142857142857142	0.07142857142857142	0.07142857142857142	0.07142857142857142	0.07142857142857142	0.07142857142857142	0.07142857142857142	0.07142857142857142	0.07142857142857142	)
		(	0.07142857142857142	0.07142857142857142	0.07142857142857142	0.07142857142857142	0.07142857142857142	0.07142857142857142	0.07142857142857142	0.07142857142857142	0.07142857142857142	0.07142857142857142	0.07142857142857142	0.07142857142857142	0.07142857142857142	0.07142857142857142	))
		((	0.07142857142857142	0.07142857142857142	0.07142857142857142	0.07142857142857142	0.07142857142857142	0.07142857142857142	0.07142857142857142	0.07142857142857142	0.07142857142857142	0.07142857142857142	0.07142857142857142	0.07142857142857142	0.07142857142857142	0.07142857142857142	)
		(	0.07142857142857142	0.07142857142857142	0.07142857142857142	0.07142857142857142	0.07142857142857142	0.07142857142857142	0.07142857142857142	0.07142857142857142	0.07142857142857142	0.07142857142857142	0.07142857142857142	0.07142857142857142	0.07142857142857142	0.07142857142857142	))
		((	0.07142857142857142	0.07142857142857142	0.07142857142857142	0.07142857142857142	0.07142857142857142	0.07142857142857142	0.07142857142857142	0.07142857142857142	0.07142857142857142	0.07142857142857142	0.07142857142857142	0.07142857142857142	0.07142857142857142	0.07142857142857142	)
		(	0.07142857142857142	0.07142857142857142	0.07142857142857142	0.07142857142857142	0.07142857142857142	0.07142857142857142	0.07142857142857142	0.07142857142857142	0.07142857142857142	0.07142857142857142	0.07142857142857142	0.07142857142857142	0.07142857142857142	0.07142857142857142	))
		((	0.07142857142857142	0.07142857142857142	0.07142857142857142	0.07142857142857142	0.07142857142857142	0.07142857142857142	0.07142857142857142	0.07142857142857142	0.07142857142857142	0.07142857142857142	0.07142857142857142	0.07142857142857142	0.07142857142857142	0.07142857142857142	)
		(	0.07142857142857142	0.07142857142857142	0.07142857142857142	0.07142857142857142	0.07142857142857142	0.07142857142857142	0.07142857142857142	0.07142857142857142	0.07142857142857142	0.07142857142857142	0.07142857142857142	0.07142857142857142	0.07142857142857142	0.07142857142857142	))
		((	0.07142857142857142	0.07142857142857142	0.07142857142857142	0.07142857142857142	0.07142857142857142	0.07142857142857142	0.07142857142857142	0.07142857142857142	0.07142857142857142	0.07142857142857142	0.07142857142857142	0.07142857142857142	0.07142857142857142	0.07142857142857142	)
		(	0.07142857142857142	0.07142857142857142	0.07142857142857142	0.07142857142857142	0.07142857142857142	0.07142857142857142	0.07142857142857142	0.07142857142857142	0.07142857142857142	0.07142857142857142	0.07142857142857142	0.07142857142857142	0.07142857142857142	0.07142857142857142	)))
		(((	0.169722528574	0.137712218435	0.109664293831	0.102054926141	0.0924507887173	0.0475486264287	0.0473084185549	0.0435194004411	0.0323737550966	0.0290024898068	0.0271330459194	0.021871449101	0.0186631074126	0.1209749515406	)
		(	0.169722528574	0.137712218435	0.109664293831	0.102054926141	0.0924507887173	0.0475486264287	0.0473084185549	0.0435194004411	0.0323737550966	0.0290024898068	0.0271330459194	0.021871449101	0.0186631074126	0.1209749515406	))
		((	0.169722528574	0.137712218435	0.109664293831	0.102054926141	0.0924507887173	0.0475486264287	0.0473084185549	0.0435194004411	0.0323737550966	0.0290024898068	0.0271330459194	0.021871449101	0.0186631074126	0.1209749515406	)
		(	0.169722528574	0.137712218435	0.109664293831	0.102054926141	0.0924507887173	0.0475486264287	0.0473084185549	0.0435194004411	0.0323737550966	0.0290024898068	0.0271330459194	0.021871449101	0.0186631074126	0.1209749515406	))
		((	0.07142857142857142	0.07142857142857142	0.07142857142857142	0.07142857142857142	0.07142857142857142	0.07142857142857142	0.07142857142857142	0.07142857142857142	0.07142857142857142	0.07142857142857142	0.07142857142857142	0.07142857142857142	0.07142857142857142	0.07142857142857142	)
		(	0.07142857142857142	0.07142857142857142	0.07142857142857142	0.07142857142857142	0.07142857142857142	0.07142857142857142	0.07142857142857142	0.07142857142857142	0.07142857142857142	0.07142857142857142	0.07142857142857142	0.07142857142857142	0.07142857142857142	0.07142857142857142	))
		((	0.07142857142857142	0.07142857142857142	0.07142857142857142	0.07142857142857142	0.07142857142857142	0.07142857142857142	0.07142857142857142	0.07142857142857142	0.07142857142857142	0.07142857142857142	0.07142857142857142	0.07142857142857142	0.07142857142857142	0.07142857142857142	)
		(	0.07142857142857142	0.07142857142857142	0.07142857142857142	0.07142857142857142	0.07142857142857142	0.07142857142857142	0.07142857142857142	0.07142857142857142	0.07142857142857142	0.07142857142857142	0.07142857142857142	0.07142857142857142	0.07142857142857142	0.07142857142857142	))
		((	0.07142857142857142	0.07142857142857142	0.07142857142857142	0.07142857142857142	0.07142857142857142	0.07142857142857142	0.07142857142857142	0.07142857142857142	0.07142857142857142	0.07142857142857142	0.07142857142857142	0.07142857142857142	0.07142857142857142	0.07142857142857142	)
		(	0.07142857142857142	0.07142857142857142	0.07142857142857142	0.07142857142857142	0.07142857142857142	0.07142857142857142	0.07142857142857142	0.07142857142857142	0.07142857142857142	0.07142857142857142	0.07142857142857142	0.07142857142857142	0.07142857142857142	0.07142857142857142	))
		((	0.07142857142857142	0.07142857142857142	0.07142857142857142	0.07142857142857142	0.07142857142857142	0.07142857142857142	0.07142857142857142	0.07142857142857142	0.07142857142857142	0.07142857142857142	0.07142857142857142	0.07142857142857142	0.07142857142857142	0.07142857142857142	)
		(	0.07142857142857142	0.07142857142857142	0.07142857142857142	0.07142857142857142	0.07142857142857142	0.07142857142857142	0.07142857142857142	0.07142857142857142	0.07142857142857142	0.07142857142857142	0.07142857142857142	0.07142857142857142	0.07142857142857142	0.07142857142857142	))
		((	0.07142857142857142	0.07142857142857142	0.07142857142857142	0.07142857142857142	0.07142857142857142	0.07142857142857142	0.07142857142857142	0.07142857142857142	0.07142857142857142	0.07142857142857142	0.07142857142857142	0.07142857142857142	0.07142857142857142	0.07142857142857142	)
		(	0.07142857142857142	0.07142857142857142	0.07142857142857142	0.07142857142857142	0.07142857142857142	0.07142857142857142	0.07142857142857142	0.07142857142857142	0.07142857142857142	0.07142857142857142	0.07142857142857142	0.07142857142857142	0.07142857142857142	0.07142857142857142	))
		((	0.07142857142857142	0.07142857142857142	0.07142857142857142	0.07142857142857142	0.07142857142857142	0.07142857142857142	0.07142857142857142	0.07142857142857142	0.07142857142857142	0.07142857142857142	0.07142857142857142	0.07142857142857142	0.07142857142857142	0.07142857142857142	)
		(	0.07142857142857142	0.07142857142857142	0.07142857142857142	0.07142857142857142	0.07142857142857142	0.07142857142857142	0.07142857142857142	0.07142857142857142	0.07142857142857142	0.07142857142857142	0.07142857142857142	0.07142857142857142	0.07142857142857142	0.07142857142857142	))));
}
potential ( Outcome | Level Description Time )
{
	data = ((((	0.6609259738849346	0.33907402611506554	)
		(	0.6609259738849346	0.33907402611506554	)
		(	0.6609259738849346	0.33907402611506554	)
		(	0.6609259738849346	0.33907402611506554	))
		((	0.6609259738849346	0.33907402611506554	)
		(	0.6609259738849346	0.33907402611506554	)
		(	0.6609259738849346	0.33907402611506554	)
		(	0.6609259738849346	0.33907402611506554	))
		((	0.6609259738849346	0.33907402611506554	)
		(	0.6609259738849346	0.33907402611506554	)
		(	0.6609259738849346	0.33907402611506554	)
		(	0.6609259738849346	0.33907402611506554	))
		((	0.6609259738849346	0.33907402611506554	)
		(	0.6609259738849346	0.33907402611506554	)
		(	0.6609259738849346	0.33907402611506554	)
		(	0.6609259738849346	0.33907402611506554	))
		((	0.6609259738849346	0.33907402611506554	)
		(	0.6609259738849346	0.33907402611506554	)
		(	0.6609259738849346	0.33907402611506554	)
		(	0.6609259738849346	0.33907402611506554	))
		((	0.6609259738849346	0.33907402611506554	)
		(	0.6609259738849346	0.33907402611506554	)
		(	0.6609259738849346	0.33907402611506554	)
		(	0.6609259738849346	0.33907402611506554	))
		((	0.6609259738849346	0.33907402611506554	)
		(	0.6609259738849346	0.33907402611506554	)
		(	0.6609259738849346	0.33907402611506554	)
		(	0.6609259738849346	0.33907402611506554	))
		((	0.5	0.5	)
		(	0.5	0.5	)
		(	0.5	0.5	)
		(	0.5	0.5	))
		((	0.5	0.5	)
		(	0.5	0.5	)
		(	0.5	0.5	)
		(	0.5	0.5	))
		((	0.5	0.5	)
		(	0.5	0.5	)
		(	0.5	0.5	)
		(	0.5	0.5	))
		((	0.5	0.5	)
		(	0.5	0.5	)
		(	0.5	0.5	)
		(	0.5	0.5	))
		((	0.5	0.5	)
		(	0.5	0.5	)
		(	0.5	0.5	)
		(	0.5	0.5	))
		((	0.5	0.5	)
		(	0.5	0.5	)
		(	0.5	0.5	)
		(	0.5	0.5	))
		((	0.6609259738849346	0.33907402611506554	)
		(	0.6609259738849346	0.33907402611506554	)
		(	0.6609259738849346	0.33907402611506554	)
		(	0.6609259738849346	0.33907402611506554	)))
		(((	0.6609259738849346	0.33907402611506554	)
		(	0.6609259738849346	0.33907402611506554	)
		(	0.6609259738849346	0.33907402611506554	)
		(	0.6609259738849346	0.33907402611506554	))
		((	0.6609259738849346	0.33907402611506554	)
		(	0.6609259738849346	0.33907402611506554	)
		(	0.6609259738849346	0.33907402611506554	)
		(	0.6609259738849346	0.33907402611506554	))
		((	0.6609259738849346	0.33907402611506554	)
		(	0.6609259738849346	0.33907402611506554	)
		(	0.6609259738849346	0.33907402611506554	)
		(	0.6609259738849346	0.33907402611506554	))
		((	0.6609259738849346	0.33907402611506554	)
		(	0.6609259738849346	0.33907402611506554	)
		(	0.6609259738849346	0.33907402611506554	)
		(	0.6609259738849346	0.33907402611506554	))
		((	0.6609259738849346	0.33907402611506554	)
		(	0.6609259738849346	0.33907402611506554	)
		(	0.6609259738849346	0.33907402611506554	)
		(	0.6609259738849346	0.33907402611506554	))
		((	0.6609259738849346	0.33907402611506554	)
		(	0.6609259738849346	0.33907402611506554	)
		(	0.6609259738849346	0.33907402611506554	)
		(	0.6609259738849346	0.33907402611506554	))
		((	0.6609259738849346	0.33907402611506554	)
		(	0.6609259738849346	0.33907402611506554	)
		(	0.6609259738849346	0.33907402611506554	)
		(	0.6609259738849346	0.33907402611506554	))
		((	0.5	0.5	)
		(	0.5	0.5	)
		(	0.5	0.5	)
		(	0.5	0.5	))
		((	0.5	0.5	)
		(	0.5	0.5	)
		(	0.5	0.5	)
		(	0.5	0.5	))
		((	0.5	0.5	)
		(	0.5	0.5	)
		(	0.5	0.5	)
		(	0.5	0.5	))
		((	0.5	0.5	)
		(	0.5	0.5	)
		(	0.5	0.5	)
		(	0.5	0.5	))
		((	0.5	0.5	)
		(	0.5	0.5	)
		(	0.5	0.5	)
		(	0.5	0.5	))
		((	0.5	0.5	)
		(	0.5	0.5	)
		(	0.5	0.5	)
		(	0.5	0.5	))
		((	0.6609259738849346	0.33907402611506554	)
		(	0.6609259738849346	0.33907402611506554	)
		(	0.6609259738849346	0.33907402611506554	)
		(	0.6609259738849346	0.33907402611506554	)))
		(((	0.6609259738849346	0.33907402611506554	)
		(	0.6609259738849346	0.33907402611506554	)
		(	0.6609259738849346	0.33907402611506554	)
		(	0.6609259738849346	0.33907402611506554	))
		((	0.6609259738849346	0.33907402611506554	)
		(	0.6609259738849346	0.33907402611506554	)
		(	0.6609259738849346	0.33907402611506554	)
		(	0.6609259738849346	0.33907402611506554	))
		((	0.6609259738849346	0.33907402611506554	)
		(	0.6609259738849346	0.33907402611506554	)
		(	0.6609259738849346	0.33907402611506554	)
		(	0.6609259738849346	0.33907402611506554	))
		((	0.6609259738849346	0.33907402611506554	)
		(	0.6609259738849346	0.33907402611506554	)
		(	0.6609259738849346	0.33907402611506554	)
		(	0.6609259738849346	0.33907402611506554	))
		((	0.6609259738849346	0.33907402611506554	)
		(	0.6609259738849346	0.33907402611506554	)
		(	0.6609259738849346	0.33907402611506554	)
		(	0.6609259738849346	0.33907402611506554	))
		((	0.6609259738849346	0.33907402611506554	)
		(	0.6609259738849346	0.33907402611506554	)
		(	0.6609259738849346	0.33907402611506554	)
		(	0.6609259738849346	0.33907402611506554	))
		((	0.6609259738849346	0.33907402611506554	)
		(	0.6609259738849346	0.33907402611506554	)
		(	0.6609259738849346	0.33907402611506554	)
		(	0.6609259738849346	0.33907402611506554	))
		((	0.5	0.5	)
		(	0.5	0.5	)
		(	0.5	0.5	)
		(	0.5	0.5	))
		((	0.5	0.5	)
		(	0.5	0.5	)
		(	0.5	0.5	)
		(	0.5	0.5	))
		((	0.5	0.5	)
		(	0.5	0.5	)
		(	0.5	0.5	)
		(	0.5	0.5	))
		((	0.5	0.5	)
		(	0.5	0.5	)
		(	0.5	0.5	)
		(	0.5	0.5	))
		((	0.5	0.5	)
		(	0.5	0.5	)
		(	0.5	0.5	)
		(	0.5	0.5	))
		((	0.5	0.5	)
		(	0.5	0.5	)
		(	0.5	0.5	)
		(	0.5	0.5	))
		((	0.6609259738849346	0.33907402611506554	)
		(	0.6609259738849346	0.33907402611506554	)
		(	0.6609259738849346	0.33907402611506554	)
		(	0.6609259738849346	0.33907402611506554	))));
}
potential ( Location | Time )
{
	data = ((	0.65752078214	0.34247921786	)
		(	0.65752078214	0.34247921786	)
		(	0.65752078214	0.34247921786	)
		(	0.65752078214	0.34247921786	));
}
potential ( Park | Borough Location )
{
	data = (((	0.00939387372447549	0.9906061262755245	)
		(	0.00939387372447549	0.9906061262755245	))
		((	0.009524486459593905	0.9904755135404061	)
		(	0.009524486459593905	0.9904755135404061	))
		((	0.014102553003605642	0.9858974469963944	)
		(	0.014102553003605642	0.9858974469963944	))
		((	0.009511831661722663	0.9904881683382774	)
		(	0.009511831661722663	0.9904881683382774	))
		((	0.003340808201	0.996659191799	)
		(	0.003340808201	0.996659191799	)));
}
potential ( Jurisdiction | Level Description )
{
	data = (((	0.8820415034130001	0.0795607388409	0.024995614071700003	0.00507932264559	0.0035296279897399996	0.004793193039069998	)
		(	0.8820415034130001	0.0795607388409	0.024995614071700003	0.00507932264559	0.0035296279897399996	0.004793193039069998	)
		(	0.8820415034130001	0.0795607388409	0.024995614071700003	0.00507932264559	0.0035296279897399996	0.004793193039069998	)
		(	0.8820415034130001	0.0795607388409	0.024995614071700003	0.00507932264559	0.0035296279897399996	0.004793193039069998	)
		(	0.8820415034130001	0.0795607388409	0.024995614071700003	0.00507932264559	0.0035296279897399996	0.004793193039069998	)
		(	0.8820415034130001	0.0795607388409	0.024995614071700003	0.00507932264559	0.0035296279897399996	0.004793193039069998	)
		(	0.8820415034130001	0.0795607388409	0.024995614071700003	0.00507932264559	0.0035296279897399996	0.004793193039069998	)
		(	0.16666666666666666	0.16666666666666666	0.16666666666666666	0.16666666666666666	0.16666666666666666	0.16666666666666666	)
		(	0.16666666666666666	0.16666666666666666	0.16666666666666666	0.16666666666666666	0.16666666666666666	0.16666666666666666	)
		(	0.16666666666666666	0.16666666666666666	0.16666666666666666	0.16666666666666666	0.16666666666666666	0.16666666666666666	)
		(	0.16666666666666666	0.16666666666666666	0.16666666666666666	0.16666666666666666	0.16666666666666666	0.16666666666666666	)
		(	0.16666666666666666	0.16666666666666666	0.16666666666666666	0.16666666666666666	0.16666666666666666	0.16666666666666666	)
		(	0.16666666666666666	0.16666666666666666	0.16666666666666666	0.16666666666666666	0.16666666666666666	0.16666666666666666	)
		(	0.8820415034130001	0.0795607388409	0.024995614071700003	0.00507932264559	0.0035296279897399996	0.004793193039069998	))
		((	0.8820415034130001	0.0795607388409	0.024995614071700003	0.00507932264559	0.0035296279897399996	0.004793193039069998	)
		(	0.8820415034130001	0.0795607388409	0.024995614071700003	0.00507932264559	0.0035296279897399996	0.004793193039069998	)
		(	0.8820415034130001	0.0795607388409	0.024995614071700003	0.00507932264559	0.0035296279897399996	0.004793193039069998	)
		(	0.8820415034130001	0.0795607388409	0.024995614071700003	0.00507932264559	0.0035296279897399996	0.004793193039069998	)
		(	0.8820415034130001	0.0795607388409	0.024995614071700003	0.00507932264559	0.0035296279897399996	0.004793193039069998	)
		(	0.8820415034130001	0.0795607388409	0.024995614071700003	0.00507932264559	0.0035296279897399996	0.004793193039069998	)
		(	0.8820415034130001	0.0795607388409	0.024995614071700003	0.00507932264559	0.0035296279897399996	0.004793193039069998	)
		(	0.16666666666666666	0.16666666666666666	0.16666666666666666	0.16666666666666666	0.16666666666666666	0.16666666666666666	)
		(	0.16666666666666666	0.16666666666666666	0.16666666666666666	0.16666666666666666	0.16666666666666666	0.16666666666666666	)
		(	0.16666666666666666	0.16666666666666666	0.16666666666666666	0.16666666666666666	0.16666666666666666	0.16666666666666666	)
		(	0.16666666666666666	0.16666666666666666	0.16666666666666666	0.16666666666666666	0.16666666666666666	0.16666666666666666	)
		(	0.16666666666666666	0.16666666666666666	0.16666666666666666	0.16666666666666666	0.16666666666666666	0.16666666666666666	)
		(	0.16666666666666666	0.16666666666666666	0.16666666666666666	0.16666666666666666	0.16666666666666666	0.16666666666666666	)
		(	0.8820415034130001	0.0795607388409	0.024995614071700003	0.00507932264559	0.0035296279897399996	0.004793193039069998	))
		((	0.8820415034130001	0.0795607388409	0.024995614071700003	0.00507932264559	0.0035296279897399996	0.004793193039069998	)
		(	0.8820415034130001	0.0795607388409	0.024995614071700003	0.00507932264559	0.0035296279897399996	0.004793193039069998	)
		(	0.8820415034130001	0.0795607388409	0.024995614071700003	0.00507932264559	0.0035296279897399996	0.004793193039069998	)
		(	0.8820415034130001	0.0795607388409	0.024995614071700003	0.00507932264559	0.0035296279897399996	0.004793193039069998	)
		(	0.8820415034130001	0.0795607388409	0.024995614071700003	0.00507932264559	0.0035296279897399996	0.004793193039069998	)
		(	0.8820415034130001	0.0795607388409	0.024995614071700003	0.00507932264559	0.0035296279897399996	0.004793193039069998	)
		(	0.8820415034130001	0.0795607388409	0.024995614071700003	0.00507932264559	0.0035296279897399996	0.004793193039069998	)
		(	0.16666666666666666	0.16666666666666666	0.16666666666666666	0.16666666666666666	0.16666666666666666	0.16666666666666666	)
		(	0.16666666666666666	0.16666666666666666	0.16666666666666666	0.16666666666666666	0.16666666666666666	0.16666666666666666	)
		(	0.16666666666666666	0.16666666666666666	0.16666666666666666	0.16666666666666666	0.16666666666666666	0.16666666666666666	)
		(	0.16666666666666666	0.16666666666666666	0.16666666666666666	0.16666666666666666	0.16666666666666666	0.16666666666666666	)
		(	0.16666666666666666	0.16666666666666666	0.16666666666666666	0.16666666666666666	0.16666666666666666	0.16666666666666666	)
		(	0.16666666666666666	0.16666666666666666	0.16666666666666666	0.16666666666666666	0.16666666666666666	0.16666666666666666	)
		(	0.8820415034130001	0.0795607388409	0.024995614071700003	0.00507932264559	0.0035296279897399996	0.004793193039069998	)));
}
potential ( Premise | Location Borough )
{
	data = (((	0.0142708732025 0.47691690816 0.119598301347 0.0218528441504 0.029945140066 0.0 0.00534018626861 0.332075746806	)
		(	0.0158231770295 0.396185361151 0.123307856503 0.0326103422158 0.0379260483371 0.0 0.0108517523928 0.38329546237	)
		(	0.00910971195669 0.298613012136 0.126714724579 0.0611217568513 0.0734556072634 0.0388721598686 0.0 0.392113027344	)
		(	0.0144939802374 0.310552040795 0.0407947356171 0.0451111910455 0.0345528025222 0.0 0.014007321047 0.540487928736	)
		(	0.016589611096 0.189466050222 0.0699845888859 0.0353549088931 0.0383464781072 0.0 0.00543921675279 0.644819146043	))
		((	0.300500120574	0.31	0.0800842970527	0.0262579028487	0.0254526772702	0.0248089161957	0.0115499543915	0.22134613166720007	)
		(	0.300500120574	0.31	0.0800842970527	0.0262579028487	0.0254526772702	0.0248089161957	0.0115499543915	0.22134613166720007	)
		(	0.300500120574	0.31	0.0800842970527	0.0262579028487	0.0254526772702	0.0248089161957	0.0115499543915	0.22134613166720007	)
		(	0.300500120574	0.31	0.0800842970527	0.0262579028487	0.0254526772702	0.0248089161957	0.0115499543915	0.22134613166720007	)
		(	0.300500120574	0.31	0.0800842970527	0.0262579028487	0.0254526772702	0.0248089161957	0.0115499543915	0.22134613166720007	)));
}
potential ( Month | )
{
	data = (	0.0806504839363	0.0727888684203	0.0832403891541	0.0830837416611	0.0879774093429	0.0877915209845	0.0874991123309	0.0899031291903	0.0834993796759	0.0865028342753	0.0783759623378	0.0786871686906	);
}
potential ( Day | )
{
	data = (	0.15553425149684447	0.1466888897238533	0.14503886946485495	0.14424101156685576	0.14161559958385836	0.13521393870286477	0.13166743946086834	);
}
potential ( Time | Month Day )
{
	data = (((	0.22319362303922316	0.18398045770118396	0.3112625353563112	0.28156338390328156	)
		(	0.117785169243	0.19956955586	0.31246331442	0.370181960477	)
		(	0.138985005767139	0.2006920415222007	0.3487120338333487	0.3116109188773116	)
		(	0.231039091213	0.153859004343	0.300367524223	0.314734380221	)
		(	0.115669274688	0.203637132586	0.371114400508	0.309579192218	)
		(	0.136846867225	0.205157204252	0.361682877177	0.296313051346	)
		(	0.23389641730076613	0.1498050863188502	0.31019120103968983	0.3061072953406939	))
		((	0.15514837681715515	0.18203545110518204	0.3202549292973203	0.3425612427803426	)
		(	0.2089552238802059	0.33924129353238	0.0	0.45180348258741404	)
		(	0.126330588472	0.210283189395	0.308495681864	0.354890540269	)
		(	0.23815213062523816	0.14954201513314955	0.2951015531662951	0.31720430107531716	)
		(	0.10888557425989114	0.20029831664179976	0.36927338589363073	0.32154272320467847	)
		(	0.1485909479078514	0.2037574722457962	0.2823228010247177	0.3653287788216346	)
		(	0.2482072634742482	0.15105250983115107	0.30534351145030536	0.29539671524429545	))
		((	0.16228467815	0.186400725295	0.327107887579	0.324206708976	)
		(	0.1293956462168706	0.2088597960117911	0.367940325772632	0.2938042319987062	)
		(	0.12671594509	0.198219942676	0.360084477297	0.314979634937	)
		(	0.24310776942375686	0.15982263350684014	0.2932330827067067	0.30383651436269615	)
		(	0.117778439547	0.201161405599	0.378796902918	0.302263251936	)
		(	0.133965108766	0.208916648719	0.363127288391	0.293990954124	)
		(	0.263112078346	0.142328618063	0.302285092492	0.292274211099	))
		((	0.1602046311251602	0.18982229402318984	0.3342757135163343	0.31569736133531573	)
		(	0.121894130356	0.198055455528	0.362261433201	0.317788980915	)
		(	0.149150644017	0.192831808848	0.354489453052	0.303528094083	)
		(	0.24958276437575044	0.16264603246883738	0.28796844181471204	0.2998027613407002	)
		(	0.123340040241	0.2	0.359356136821	0.317303822938	)
		(	0.133529990167	0.213962635202	0.37069813176	0.281809242871	)
		(	0.249895702962	0.153942428035	0.292448894451	0.303712974552	))
		((	0.154553339115	0.18473547268	0.333044232437	0.327666955768	)
		(	0.12313961729287688	0.20836286321779166	0.3515237420266485	0.31697377746268307	)
		(	0.134788884879	0.193251533742	0.348430169614	0.323529411765	)
		(	0.242345997787	0.158613057912	0.289007746219	0.310033198082	)
		(	0.11773319666111774	0.2080831746962081	0.36359642700236366	0.3105872016403106	)
		(	0.140104007342	0.200978892628	0.357754665035	0.301162434995	)
		(	0.257129426512	0.152146662488	0.292854904419	0.297869006581	))
		((	0.147766323024	0.20240549828199997	0.333848797251	0.315979381443	)
		(	0.143567015847	0.210717163578	0.334139135106	0.311576685469	)
		(	0.14383757506414382	0.19802688018319803	0.33843294252233846	0.3197026022303197	)
		(	0.239633027523	0.155412844037	0.291009174312	0.313944954128	)
		(	0.126670327659	0.208676551345	0.349807797913	0.314845323083	)
		(	0.14293361884385705	0.21234832262678766	0.3511777301926488	0.29354032833670646	)
		(	0.23801369863	0.160578386606	0.287480974125	0.313926940639	))
		((	0.1719501839798281	0.19728276252480273	0.3155958109256844	0.3151712425696849	)
		(	0.15402588066115402	0.19698058950419697	0.34345794392534346	0.3055355859093055	)
		(	0.154304277206	0.199422486916	0.339108464176	0.307164771702	)
		(	0.234586024662	0.162654139753	0.287433940106	0.315325895479	)
		(	0.14783253056685214	0.18914412745481085	0.3423490181546576	0.32067432382367933	)
		(	0.178858599725	0.195136301236	0.319670523632	0.306334575407	)
		(	0.244347419305	0.167940121628	0.280523935755	0.307188523312	))
		((	0.172777585611	0.177966101695	0.328260117606	0.320996195088	)
		(	0.150477016479	0.187337380746	0.334634287366	0.327551315409	)
		(	0.1510843812648489	0.18516493530181485	0.3320575906686679	0.3316930927646683	)
		(	0.244589125462	0.16822101003	0.275734647193	0.311455217315	)
		(	0.137769309688	0.194489227612	0.336655430163	0.331086032537	)
		(	0.168857431749	0.19991333237	0.329914776831	0.30131445905	)
		(	0.267870302137	0.153279292557	0.282424465733	0.296425939573	))
		((	0.141548590239	0.203807070273	0.330327751539	0.324316587949	)
		(	0.135986733001864	0.21614151464878384	0.3442049014186558	0.3036668509306963	)
		(	0.15032774945384966	0.20772032046579228	0.3334304442826666	0.3085214857976915	)
		(	0.24008933556675993	0.160990135864839	0.2895961287917104	0.3093243997766907	)
		(	0.141948756312	0.214325790163	0.347297550028	0.296427903497	)
		(	0.155373592631	0.202047082907	0.34636642784	0.296212896622	)
		(	0.26756968983126755	0.16117000392616118	0.27463682764027464	0.2966234786022966	))
		((	0.131985940246	0.205448154657	0.333919156415	0.328646748682	)
		(	0.129062209842	0.209470752089	0.364902506964	0.296564531105	)
		(	0.14692626645014695	0.21885703984121888	0.33693888588433696	0.2972778078242973	)
		(	0.2493399824	0.168671164564	0.284540921091	0.297447931945	)
		(	0.122120247237	0.198164450272	0.356808391084	0.322906911407	)
		(	0.14601978332514604	0.2027005809392027	0.34353901711434354	0.30774061862130775	)
		(	0.278876834716	0.152839821315	0.285577536694	0.282705807275	))
		((	0.154405086285	0.182924613987	0.332061762035	0.330608537693	)
		(	0.130515559684	0.22263508282999997	0.355937451618	0.290911905868	)
		(	0.145402416547	0.213598197829	0.328691378251	0.312308007373	)
		(	0.2169124877087831	0.1632251720748368	0.316027531956684	0.30383480825969617	)
		(	0.132793522267	0.214898785425	0.346234817814	0.306072874494	)
		(	0.123803446075	0.237609019358	0.36545415869	0.273133375877	)
		(	0.25800296798774197	0.16620733517083378	0.2927708289167072	0.2830188679247169	))
		((	0.14991816693914992	0.19247135842919247	0.33682487725033683	0.3207855973813208	)
		(	0.129472874182	0.207002693344	0.367064255483	0.296460176991	)
		(	0.14105361595985894	0.19311097256880685	0.34881546134665115	0.317019950124683	)
		(	0.247735748535	0.154679453028	0.29603977979	0.301545018647	)
		(	0.130990415335131	0.2110505544072111	0.36421725239636427	0.29374177786129374	)
		(	0.13629469122413632	0.20563380281720564	0.3631635969663632	0.2949079089922949	)
		(	0.263289984029	0.151266255989	0.285420944559	0.300022815423	)));
}
